svm_type c_svc
kernel_type rbf
gamma 0.111111
nr_class 2
total_sv 189
rho -0.669302
label 1 -1
probA 12.2779
probB -9.3562
nr_sv 142 47
SV
0.3309067605333838 1:17 2:4 3:10 4:10 5:13 6:21 7:2 8:4 9:13 
0.3309791413423099 1:1 2:12 3:12 4:21 5:4 6:12 7:9 8:8 9:10 
0.3309483551127698 1:18 2:17 3:14 4:5 5:18 6:14 7:5 8:17 9:6 
0.3309811954339212 1:16 2:10 3:18 4:2 5:10 6:1 7:8 8:16 9:13 
0.3309810966807515 1:8 2:5 3:7 4:14 5:21 6:8 7:15 8:14 9:21 
0.330996286306004 1:15 2:10 3:2 4:13 5:6 6:18 7:15 8:16 9:2 
0.3301056404560316 1:14 2:6 3:6 4:11 5:9 6:6 7:9 8:14 9:4 
0.3315687303016007 1:16 2:7 3:7 4:17 5:14 6:3 7:14 8:13 9:2 
0.3307729199817246 1:17 2:18 3:13 4:6 5:14 6:9 7:9 8:20 9:10 
0.330145761392599 1:6 2:3 3:7 4:18 5:10 6:15 7:10 8:9 9:18 
0.3309086084430529 1:13 2:4 3:16 4:10 5:13 6:21 7:18 8:4 9:11 
0.3309977950315955 1:15 2:21 3:10 4:6 5:10 6:9 7:12 8:9 9:13 
0.3309799656412808 1:21 2:15 3:10 4:12 5:21 6:12 7:11 8:14 9:4 
0.3309814628617322 1:19 2:3 3:9 4:13 5:16 6:18 7:18 8:17 9:6 
0.3309104692623006 1:10 2:8 3:14 4:17 5:10 6:1 7:16 8:17 9:3 
0.3309816868723223 1:14 2:9 3:10 4:9 5:14 6:17 7:8 8:16 9:14 
0.3309816390763727 1:10 2:4 3:13 4:6 5:15 6:14 7:6 8:2 9:16 
0.3309065760432457 1:16 2:17 3:11 4:16 5:10 6:12 7:17 8:1 9:8 
0.3309783164597734 1:19 2:8 3:12 4:5 5:15 6:8 7:17 8:12 9:10 
0.3309809010051794 1:18 2:16 3:16 4:12 5:7 6:12 7:2 8:17 9:2 
0.3300409214341532 1:2 2:10 3:21 4:11 5:12 6:4 7:21 8:11 9:12 
0.3309089736479701 1:8 2:3 3:10 4:16 5:9 6:5 7:8 8:8 9:19 
0.3309812451517596 1:5 2:5 3:5 4:1 5:7 6:18 7:13 8:10 9:16 
0.3309076382619961 1:14 2:7 3:5 4:6 5:15 6:13 7:15 8:15 9:18 
0.3309092079894399 1:10 2:9 3:12 4:10 5:10 6:5 7:13 8:2 9:5 
0.3313282147266489 1:16 2:4 3:12 4:4 5:6 6:8 7:15 8:12 9:7 
0.330040921630782 1:6 2:5 3:2 4:2 5:16 6:9 7:21 8:5 9:2 
0.3301461427705578 1:4 2:9 3:1 4:21 5:3 6:14 7:14 8:3 9:21 
0.3309815724618017 1:14 2:9 3:1 4:12 5:16 6:5 7:5 8:10 9:19 
0.330040914466901 1:5 2:18 3:1 4:14 5:20 6:8 7:6 8:10 9:17 
0.3309811226913823 1:1 2:9 3:12 4:17 5:9 6:8 7:16 8:19 9:1 
0.3316604680314381 1:9 2:10 3:5 4:10 5:14 6:9 7:5 8:6 9:12 
0.3300392056581855 1:18 2:16 3:13 4:10 5:2 6:18 7:16 8:14 9:21 
0.3309812913713572 1:16 2:21 3:21 4:1 5:14 6:8 7:21 8:13 9:19 
0.3301461229691706 1:5 2:7 3:18 4:10 5:8 6:2 7:8 8:16 9:10 
0.330829217805355 1:6 2:8 3:21 4:16 5:15 6:3 7:10 8:3 9:8 
0.3309091518081355 1:13 2:1 3:15 4:9 5:5 6:2 7:10 8:1 9:4 
0.332564467916253 1:6 2:12 3:21 4:6 5:19 6:12 7:10 8:18 9:13 
0.330981208753205 1:16 2:6 3:1 4:17 5:8 6:18 7:13 8:10 9:20 
0.3301462748936987 1:16 2:1 3:18 4:2 5:16 6:6 7:15 8:18 9:16 
0.330146269731187 1:13 2:18 3:2 4:7 5:15 6:16 7:17 8:2 9:16 
0.3309751759749687 1:4 2:21 3:10 4:6 5:10 6:14 7:1 8:13 9:1 
0.3309811411781435 1:8 2:2 3:8 4:17 5:21 6:16 7:5 8:10 9:8 
0.3309627617890348 1:11 2:18 3:10 4:1 5:5 6:14 7:1 8:17 9:18 
0.3309814298557545 1:8 2:3 3:15 4:20 5:8 6:10 7:17 8:21 9:18 
0.3309089520160514 1:13 2:14 3:1 4:19 5:18 6:3 7:21 8:20 9:10 
0.3300413669954823 1:14 2:13 3:10 4:17 5:7 6:2 7:5 8:14 9:6 
0.3301465187694304 1:15 2:9 3:16 4:16 5:5 6:7 7:21 8:17 9:16 
0.3309894881076546 1:8 2:10 3:9 4:4 5:14 6:10 7:10 8:18 9:16 
0.3309684473065997 1:14 2:12 3:9 4:9 5:19 6:11 7:13 8:6 9:7 
0.3300255205312705 1:14 2:10 3:8 4:8 5:9 6:17 7:6 8:19 9:1 
0.3309066718152094 1:6 2:9 3:1 4:19 5:12 6:6 7:7 8:21 9:1 
0.3309029478688008 1:6 2:8 3:14 4:5 5:21 6:15 7:13 8:17 9:16 
0.3309088814022534 1:4 2:18 3:17 4:18 5:4 6:19 7:9 8:20 9:3 
0.3309099694364837 1:17 2:20 3:1 4:14 5:14 6:15 7:15 8:13 9:19 
0.330980940732006 1:19 2:13 3:8 4:19 5:21 6:12 7:17 8:8 9:16 
0.3309048439946515 1:7 2:20 3:17 4:16 5:17 6:15 7:4 8:12 9:10 
0.3309657755557024 1:16 2:16 3:10 4:6 5:3 6:15 7:18 8:15 9:13 
0.3300290800799097 1:2 2:9 3:21 4:2 5:9 6:8 7:9 8:19 9:8 
0.3309811463901564 1:15 2:16 3:17 4:5 5:19 6:9 7:21 8:16 9:10 
0.3309048835336739 1:7 2:10 3:8 4:16 5:17 6:18 7:21 8:14 9:4 
0.3309773946331719 1:15 2:15 3:6 4:6 5:16 6:15 7:10 8:21 9:16 
0.3309808630187777 1:10 2:21 3:4 4:1 5:4 6:11 7:6 8:6 9:16 
0.3309811164672689 1:1 2:17 3:14 4:4 5:1 6:4 7:4 8:4 9:3 
0.3309065563968927 1:20 2:10 3:5 4:9 5:10 6:10 7:10 8:5 9:5 
0.3309088597343393 1:20 2:10 3:8 4:7 5:17 6:2 7:8 8:5 9:16 
0.3309799376061773 1:9 2:1 3:9 4:9 5:15 6:18 7:15 8:8 9:9 
0.3309014194472867 1:9 2:3 3:16 4:16 5:16 6:1 7:9 8:6 9:9 
0.3301324052828875 1:16 2:12 3:10 4:5 5:5 6:17 7:10 8:14 9:14 
0.3310474797504993 1:15 2:5 3:10 4:6 5:16 6:9 7:9 8:12 9:7 
0.3301746035290971 1:21 2:13 3:6 4:19 5:16 6:10 7:16 8:13 9:3 
0.3309812930222211 1:18 2:21 3:21 4:2 5:3 6:8 7:14 8:14 9:4 
0.3309813554795481 1:17 2:1 3:10 4:14 5:13 6:6 7:14 8:14 9:16 
0.3309802341465908 1:21 2:3 3:6 4:18 5:16 6:10 7:2 8:2 9:13 
0.3300408353203677 1:20 2:13 3:10 4:7 5:19 6:3 7:19 8:12 9:19 
0.330903571307039 1:9 2:18 3:10 4:6 5:10 6:14 7:1 8:21 9:1 
0.3300359930219694 1:8 2:10 3:6 4:17 5:21 6:15 7:14 8:18 9:2 
0.3309032600915415 1:7 2:1 3:8 4:10 5:10 6:13 7:14 8:13 9:13 
0.330910245875484 1:10 2:17 3:1 4:16 5:16 6:17 7:16 8:15 9:18 
0.3309075645644608 1:15 2:10 3:6 4:1 5:10 6:2 7:11 8:2 9:13 
0.3309819580836484 1:17 2:3 3:10 4:20 5:10 6:18 7:16 8:19 9:18 
0.3300292319122669 1:4 2:13 3:15 4:5 5:2 6:7 7:2 8:17 9:13 
0.330040974912738 1:9 2:7 3:5 4:16 5:5 6:18 7:5 8:13 9:10 
0.3309807593146004 1:10 2:18 3:5 4:10 5:1 6:13 7:5 8:10 9:16 
0.3309813398379948 1:1 2:21 3:6 4:3 5:16 6:9 7:15 8:2 9:5 
0.3309066935215076 1:4 2:17 3:21 4:6 5:8 6:5 7:21 8:3 9:18 
0.3666121709095206 1:12 2:9 3:10 4:21 5:10 6:9 7:13 8:10 9:4 
0.3300326561258159 1:6 2:9 3:14 4:4 5:21 6:11 7:15 8:10 9:6 
0.3300464149867409 1:10 2:10 3:4 4:18 5:4 6:4 7:9 8:11 9:14 
0.330146107079759 1:16 2:19 3:10 4:17 5:19 6:21 7:12 8:13 9:18 
0.3300409295986991 1:19 2:16 3:4 4:17 5:2 6:14 7:10 8:7 9:10 
0.3309006580936994 1:9 2:17 3:13 4:16 5:14 6:9 7:9 8:9 9:9 
0.3309353032866626 1:13 2:13 3:12 4:19 5:6 6:21 7:15 8:16 9:6 
0.3301465315377875 1:13 2:15 3:5 4:15 5:4 6:14 7:10 8:19 9:9 
0.3309807144948189 1:17 2:10 3:21 4:12 5:10 6:9 7:1 8:20 9:9 
0.3309810921862458 1:5 2:14 3:9 4:21 5:1 6:18 7:6 8:15 9:1 
0.3309813151495136 1:10 2:18 3:5 4:5 5:8 6:18 7:6 8:7 9:9 
0.3309791279035572 1:6 2:15 3:16 4:21 5:2 6:10 7:10 8:1 9:10 
0.3300295025306775 1:4 2:6 3:12 4:13 5:4 6:6 7:1 8:16 9:15 
0.3301451230756574 1:21 2:19 3:10 4:11 5:13 6:8 7:8 8:13 9:1 
0.3309732015291582 1:20 2:15 3:10 4:9 5:15 6:10 7:12 8:2 9:11 
0.3309078698157227 1:20 2:7 3:10 4:12 5:13 6:6 7:3 8:4 9:9 
0.3300409580448523 1:17 2:21 3:17 4:10 5:18 6:8 7:10 8:8 9:2 
0.3301462731122926 1:21 2:2 3:21 4:10 5:16 6:16 7:6 8:13 9:11 
0.3309811563232055 1:16 2:13 3:16 4:20 5:16 6:6 7:6 8:21 9:6 
0.3309812141690085 1:21 2:3 3:6 4:21 5:17 6:10 7:17 8:18 9:10 
0.3309811584966917 1:19 2:10 3:21 4:8 5:1 6:15 7:21 8:15 9:1 
0.3309808903673937 1:10 2:2 3:5 4:10 5:4 6:18 7:6 8:16 9:2 
0.3301460474843853 1:4 2:21 3:11 4:8 5:9 6:1 7:14 8:10 9:4 
0.3309029587929253 1:13 2:9 3:12 4:9 5:14 6:17 7:9 8:12 9:2 
0.330980939110197 1:10 2:6 3:15 4:2 5:8 6:9 7:9 8:4 9:5 
0.3337379342262904 1:10 2:10 3:10 4:12 5:5 6:9 7:18 8:16 9:10 
0.3309793350020352 1:9 2:8 3:5 4:8 5:9 6:1 7:16 8:15 9:1 
0.3309763682718542 1:12 2:15 3:3 4:5 5:21 6:9 7:18 8:5 9:8 
0.3300306049569692 1:2 2:6 3:6 4:16 5:10 6:1 7:1 8:7 9:8 
0.3309810806796153 1:11 2:13 3:16 4:2 5:2 6:8 7:15 8:16 9:13 
0.3308600836157478 1:17 2:16 3:13 4:10 5:14 6:10 7:2 8:21 9:9 
0.3308636339691422 1:17 2:8 3:14 4:16 5:5 6:17 7:14 8:14 9:8 
0.3300406465624268 1:14 2:10 3:8 4:12 5:21 6:5 7:20 8:18 9:16 
0.3301462747596739 1:5 2:16 3:15 4:4 5:6 6:18 7:16 8:10 9:2 
0.3300184282824845 1:10 2:9 3:10 4:12 5:10 6:14 7:1 8:5 9:14 
0.3309809627638632 1:2 2:18 3:1 4:14 5:1 6:6 7:10 8:4 9:10 
0.3308901655075767 1:10 2:9 3:4 4:9 5:9 6:9 7:18 8:18 9:5 
0.3309813927430317 1:4 2:6 3:15 4:10 5:11 6:17 7:10 8:21 9:7 
0.3309811547170928 1:6 2:7 3:19 4:1 5:14 6:4 7:21 8:4 9:21 
0.3308088025702417 1:15 2:10 3:19 4:16 5:7 6:10 7:17 8:10 9:1 
0.3309066862999699 1:5 2:5 3:5 4:5 5:9 6:21 7:17 8:21 9:16 
0.3300295186885476 1:2 2:8 3:1 4:12 5:8 6:12 7:5 8:2 9:20 
0.3300409285068776 1:17 2:17 3:13 4:16 5:21 6:5 7:5 8:2 9:8 
0.3310074467310333 1:10 2:2 3:3 4:19 5:16 6:5 7:7 8:10 9:10 
0.3309811515286991 1:16 2:21 3:15 4:5 5:8 6:12 7:5 8:8 9:3 
0.3309090539283317 1:2 2:16 3:21 4:8 5:6 6:16 7:15 8:14 9:14 
0.3301460454406357 1:16 2:17 3:1 4:13 5:13 6:14 7:6 8:1 9:16 
0.3309742763677309 1:10 2:14 3:20 4:18 5:10 6:9 7:5 8:10 9:10 
0.3310518494039221 1:4 2:5 3:8 4:8 5:8 6:8 7:9 8:14 9:1 
0.330041689227584 1:8 2:9 3:1 4:16 5:9 6:21 7:7 8:5 9:16 
0.3310102714519386 1:6 2:21 3:17 4:8 5:5 6:14 7:6 8:10 9:10 
0.3309811826729343 1:21 2:10 3:14 4:10 5:5 6:2 7:14 8:20 9:20 
0.3300409305477431 1:1 2:16 3:6 4:9 5:4 6:14 7:3 8:16 9:8 
0.330040910528532 1:18 2:19 3:19 4:7 5:18 6:13 7:18 8:1 9:13 
0.3300107889956567 1:14 2:21 3:10 4:5 5:5 6:8 7:4 8:17 9:15 
0.3299743348258848 1:10 2:6 3:16 4:16 5:4 6:13 7:17 8:10 9:1 
-1 1:9 2:17 3:8 4:4 5:12 6:8 7:12 8:4 9:10 
-1 1:9 2:11 3:4 4:3 5:20 6:8 7:9 8:9 9:12 
-1 1:3 2:8 3:4 4:9 5:9 6:8 7:1 8:9 9:11 
-1 1:12 2:4 3:10 4:8 5:4 6:4 7:16 8:9 9:9 
-1 1:3 2:12 3:8 4:9 5:3 6:12 7:18 8:6 9:9 
-1 1:8 2:4 3:9 4:9 5:8 6:1 7:9 8:11 9:4 
-1 1:5 2:8 3:20 4:12 5:9 6:14 7:10 8:4 9:4 
-1 1:9 2:3 3:12 4:18 5:6 6:9 7:11 8:4 9:3 
-1 1:9 2:9 3:17 4:8 5:4 6:12 7:8 8:12 9:4 
-1 1:11 2:4 3:9 4:1 5:16 6:16 7:18 8:5 9:12 
-1 1:4 2:9 3:9 4:8 5:1 6:9 7:11 8:4 9:9 
-1 1:9 2:10 3:18 4:5 5:6 6:20 7:15 8:9 9:13 
-1 1:9 2:9 3:10 4:18 5:5 6:6 7:20 8:15 9:9 
-1 1:20 2:14 3:1 4:14 5:20 6:3 7:10 8:5 9:8 
-1 1:9 2:8 3:1 4:9 5:11 6:4 7:9 8:1 9:16 
-1 1:8 2:9 3:3 4:12 5:18 6:6 7:9 8:11 9:4 
-1 1:20 2:3 3:10 4:5 5:8 6:20 7:12 8:9 9:14 
-1 1:20 2:10 3:3 4:12 5:8 6:9 7:3 8:12 9:18 
-1 1:11 2:4 3:3 4:20 5:8 6:9 7:9 8:12 9:9 
-1 1:4 2:17 3:20 4:5 5:16 6:9 7:12 8:20 9:14 
-1 1:4 2:12 3:8 4:12 5:4 6:10 7:8 8:4 9:4 
-1 1:10 2:9 3:9 4:10 5:18 6:5 7:6 8:20 9:15 
-1 1:6 2:9 3:11 4:4 5:3 6:20 7:8 8:9 9:9 
-1 1:19 2:16 3:1 4:8 5:15 6:4 7:15 8:11 9:15 
-1 1:14 2:20 3:8 4:9 5:1 6:12 7:16 8:9 9:5 
-1 1:6 2:19 3:16 4:1 5:8 6:15 7:4 8:15 9:11 
-1 1:3 2:20 3:8 4:9 5:9 6:12 7:9 8:9 9:17 
-1 1:12 2:8 3:9 4:3 5:12 6:18 7:6 8:9 9:11 
-1 1:17 2:20 3:5 4:16 5:9 6:12 7:20 8:14 9:3 
-1 1:4 2:9 3:10 4:8 5:4 6:17 7:20 8:5 9:16 
-1 1:17 2:6 3:17 4:4 5:9 6:10 7:8 8:4 9:17 
-1 1:8 2:12 3:4 4:10 5:8 6:4 7:4 8:16 9:9 
-1 1:1 2:8 3:15 4:4 5:15 6:11 7:15 8:15 9:1 
-1 1:10 2:5 3:8 4:20 5:12 6:9 7:14 8:10 9:4 
-1 1:20 2:8 3:9 4:9 5:12 6:9 7:9 8:17 9:8 
-1 1:9 2:11 3:4 4:9 5:1 6:16 7:16 8:18 9:5 
-1 1:3 2:10 3:5 4:8 5:20 6:12 7:9 8:14 9:10 
-1 1:8 2:9 3:1 4:12 5:16 6:9 7:5 8:8 9:6 
-1 1:4 2:9 3:1 4:16 5:16 6:18 7:5 8:12 9:18 
-1 1:5 2:6 3:20 4:15 5:9 6:13 7:10 8:3 9:12 
-1 1:4 2:3 3:20 4:8 5:9 6:9 7:12 8:9 9:9 
-1 1:18 2:5 3:6 4:20 5:15 6:9 7:13 8:10 9:3 
-1 1:16 2:1 3:8 4:15 5:4 6:15 7:11 8:15 9:15 
-1 1:12 2:16 3:9 4:5 5:8 6:6 7:8 8:17 9:4 
-1 1:20 2:8 3:9 4:1 5:12 6:16 7:9 8:5 9:8 
-1 1:10 2:18 3:5 4:6 5:20 6:15 7:9 8:13 9:10 
-1 1:9 2:1 3:16 4:16 5:18 6:5 7:12 8:18 9:18 
