svm_type c_svc
kernel_type rbf
gamma 0.111111
nr_class 2
total_sv 189
rho -0.668852
label 1 -1
probA 11.9196
probB -9.11327
nr_sv 142 47
SV
0.3312810256892024 1:16 2:19 3:8 4:9 5:10 6:3 7:9 8:12 9:9 
0.3311515950437135 1:8 2:10 3:9 4:21 5:5 6:5 7:10 8:18 9:10 
0.3311907121583138 1:16 2:15 3:16 4:16 5:16 6:10 7:6 8:6 9:17 
0.3311592216006773 1:16 2:14 3:9 4:6 5:16 6:13 7:1 8:17 9:16 
0.331171186318851 1:4 2:17 3:14 4:9 5:18 6:8 7:14 8:15 9:8 
0.3312362775893562 1:17 2:9 3:12 4:7 5:10 6:20 7:13 8:17 9:9 
0.3312326965927166 1:4 2:1 3:16 4:10 5:16 6:13 7:11 8:6 9:13 
0.3311476186646919 1:15 2:16 3:17 4:9 5:16 6:21 7:17 8:17 9:1 
0.331177592367747 1:4 2:15 3:8 4:16 5:4 6:10 7:4 8:3 9:19 
0.3311822385924424 1:17 2:19 3:8 4:9 5:10 6:4 7:6 8:20 9:20 
0.3311546200264859 1:12 2:18 3:9 4:4 5:13 6:17 7:16 8:20 9:14 
0.3311616033024318 1:9 2:16 3:9 4:9 5:14 6:9 7:11 8:10 9:1 
0.3311828298676597 1:13 2:8 3:16 4:2 5:18 6:11 7:17 8:5 9:8 
0.3311907172709961 1:16 2:19 3:12 4:20 5:15 6:15 7:1 8:13 9:13 
0.3311582368762436 1:9 2:21 3:9 4:16 5:17 6:14 7:21 8:9 9:10 
0.3311100251323718 1:13 2:9 3:21 4:17 5:4 6:10 7:4 8:11 9:1 
0.3312363952527094 1:5 2:16 3:14 4:9 5:15 6:19 7:16 8:3 9:9 
0.3311837177468848 1:6 2:16 3:16 4:12 5:20 6:10 7:1 8:16 9:18 
0.3312354828517147 1:18 2:8 3:4 4:8 5:9 6:9 7:5 8:9 9:11 
0.3310951067819112 1:9 2:13 3:6 4:15 5:12 6:21 7:8 8:16 9:4 
0.3311799719264381 1:2 2:2 3:10 4:6 5:3 6:10 7:17 8:18 9:10 
0.3311884220746393 1:16 2:1 3:7 4:2 5:12 6:10 7:7 8:10 9:13 
0.3311837472303355 1:16 2:7 3:2 4:15 5:3 6:10 7:16 8:13 9:16 
0.3311524734816391 1:14 2:9 3:20 4:10 5:17 6:12 7:8 8:16 9:13 
0.331067933864326 1:8 2:1 3:16 4:11 5:9 6:9 7:12 8:10 9:17 
0.3311947937305736 1:10 2:13 3:5 4:21 5:5 6:6 7:16 8:14 9:5 
0.3311908336397928 1:6 2:14 3:20 4:13 5:21 6:21 7:17 8:16 9:11 
0.3311773091370614 1:8 2:16 3:10 4:15 5:17 6:9 7:16 8:15 9:16 
0.3311545775448639 1:2 2:17 3:12 4:1 5:11 6:10 7:5 8:19 9:16 
0.3304527653539212 1:13 2:4 3:6 4:6 5:1 6:6 7:7 8:7 9:10 
0.3311800057358154 1:17 2:11 3:4 4:20 5:20 6:21 7:10 8:8 9:9 
0.3309772248169756 1:1 2:8 3:9 4:4 5:17 6:13 7:17 8:7 9:15 
0.3311592240284652 1:8 2:1 3:16 4:15 5:18 6:12 7:16 8:9 9:4 
0.3311797234477761 1:16 2:5 3:2 4:21 5:6 6:10 7:13 8:19 9:10 
0.3310679083039492 1:9 2:6 3:11 4:10 5:10 6:10 7:12 8:13 9:14 
0.3311815325499095 1:5 2:21 3:18 4:10 5:4 6:12 7:10 8:15 9:21 
0.3311397774383917 1:17 2:8 3:21 4:16 5:16 6:12 7:13 8:17 9:17 
0.3311546868187342 1:10 2:4 3:17 4:1 5:1 6:6 7:13 8:9 9:7 
0.3311961489423904 1:10 2:9 3:17 4:8 5:14 6:10 7:5 8:6 9:9 
0.331269427249385 1:18 2:16 3:12 4:14 5:14 6:15 7:21 8:9 9:9 
0.3312018226959457 1:12 2:9 3:4 4:9 5:15 6:8 7:9 8:15 9:12 
0.3311804802260849 1:8 2:9 3:16 4:15 5:8 6:12 7:14 8:17 9:4 
0.3311510407944914 1:20 2:18 3:12 4:15 5:12 6:10 7:21 8:8 9:17 
0.3311618952150328 1:18 2:15 3:1 4:9 5:10 6:21 7:10 8:2 9:9 
0.3300814000672389 1:8 2:18 3:10 4:12 5:8 6:14 7:18 8:10 9:9 
0.3258899885458071 1:13 2:7 3:12 4:14 5:1 6:15 7:8 8:12 9:14 
0.3312807467813383 1:3 2:18 3:18 4:7 5:4 6:12 7:5 8:13 9:12 
0.3311896490008672 1:2 2:21 3:3 4:20 5:15 6:2 7:4 8:13 9:13 
0.3311506777488967 1:10 2:21 3:13 4:2 5:17 6:8 7:18 8:21 9:16 
0.3307951011511057 1:14 2:10 3:12 4:16 5:17 6:15 7:2 8:17 9:9 
0.3259392815013258 1:10 2:4 3:9 4:14 5:4 6:14 7:8 8:12 9:13 
0.3308375194059966 1:5 2:15 3:8 4:19 5:8 6:6 7:17 8:9 9:8 
0.3311452690577165 1:16 2:18 3:13 4:13 5:19 6:3 7:9 8:1 9:13 
0.3309441836381409 1:1 2:4 3:4 4:1 5:18 6:10 7:17 8:9 9:16 
0.3311542713881421 1:8 2:16 3:13 4:7 5:2 6:1 7:6 8:13 9:13 
0.3311838696443112 1:18 2:5 3:6 4:10 5:19 6:16 7:18 8:21 9:6 
0.3311881552329027 1:10 2:5 3:7 4:16 5:10 6:7 7:19 8:21 9:7 
0.331191798761377 1:4 2:14 3:12 4:5 5:14 6:4 7:18 8:21 9:3 
0.3311912909300183 1:16 2:13 3:18 4:15 5:11 6:1 7:8 8:8 9:9 
0.3311702432553933 1:3 2:13 3:10 4:9 5:15 6:7 7:9 8:18 9:1 
0.3283998785687728 1:10 2:17 3:16 4:12 5:8 6:12 7:15 8:10 9:12 
0.3312161770413085 1:9 2:3 3:6 4:18 5:10 6:13 7:2 8:19 9:13 
0.3300777858967668 1:13 2:9 3:10 4:4 5:2 6:6 7:6 8:9 9:8 
0.3311897777744626 1:17 2:9 3:20 4:7 5:8 6:5 7:20 8:5 9:21 
0.3311883655649671 1:17 2:4 3:16 4:16 5:16 6:17 7:16 8:9 9:16 
0.3311819731969277 1:3 2:19 3:6 4:13 5:8 6:5 7:12 8:8 9:12 
0.3311808334038187 1:17 2:6 3:16 4:12 5:13 6:7 7:8 8:17 9:8 
0.3306525543231338 1:7 2:17 3:21 4:17 5:7 6:15 7:13 8:18 9:16 
0.3311797163017832 1:16 2:6 3:18 4:4 5:13 6:13 7:6 8:18 9:9 
0.330445522579378 1:17 2:12 3:13 4:13 5:20 6:10 7:18 8:8 9:15 
0.3312963884664101 1:12 2:9 3:19 4:14 5:10 6:17 7:14 8:6 9:4 
0.3311650010408568 1:10 2:21 3:16 4:12 5:7 6:17 7:12 8:11 9:17 
0.3311803036303244 1:4 2:9 3:6 4:14 5:18 6:17 7:20 8:9 9:6 
0.3311874603302455 1:10 2:16 3:9 4:7 5:21 6:4 7:6 8:17 9:19 
0.3312740130425089 1:18 2:3 3:6 4:18 5:15 6:12 7:4 8:9 9:10 
0.3311842699546824 1:9 2:12 3:9 4:8 5:11 6:5 7:5 8:1 9:1 
0.3307576792201308 1:6 2:21 3:8 4:11 5:9 6:10 7:15 8:14 9:9 
0.3311439060319826 1:1 2:12 3:12 4:18 5:4 6:7 7:8 8:5 9:14 
0.3311910109603421 1:17 2:8 3:15 4:13 5:1 6:10 7:14 8:4 9:8 
0.3311548115954257 1:21 2:17 3:17 4:2 5:16 6:21 7:18 8:8 9:10 
0.3283301687103655 1:9 2:14 3:12 4:15 5:9 6:12 7:17 8:10 9:14 
0.3311590671689607 1:16 2:18 3:4 4:8 5:10 6:14 7:1 8:15 9:15 
0.331147666615778 1:9 2:18 3:8 4:19 5:4 6:13 7:9 8:3 9:9 
0.3306641738082822 1:5 2:5 3:5 4:2 5:5 6:5 7:18 8:2 9:2 
0.331145963083828 1:16 2:10 3:6 4:2 5:9 6:18 7:6 8:16 9:17 
0.3311824845361962 1:3 2:21 3:10 4:15 5:15 6:9 7:4 8:15 9:9 
0.3306507975680132 1:20 2:16 3:14 4:9 5:10 6:15 7:15 8:9 9:3 
0.331133903447936 1:6 2:8 3:16 4:4 5:11 6:4 7:6 8:4 9:9 
0.3311252160940704 1:7 2:17 3:7 4:17 5:7 6:17 7:7 8:17 9:7 
0.331181604105089 1:21 2:5 3:5 4:10 5:20 6:11 7:16 8:11 9:6 
0.3307285014245631 1:17 2:18 3:1 4:1 5:10 6:19 7:9 8:16 9:6 
0.3311458681791374 1:11 2:10 3:10 4:10 5:6 6:11 7:21 8:8 9:15 
0.330971855756761 1:20 2:9 3:12 4:10 5:21 6:17 7:19 8:13 9:6 
0.3311452982064427 1:21 2:15 3:11 4:16 5:10 6:18 7:18 8:2 9:21 
0.3308700357295995 1:12 2:12 3:13 4:6 5:8 6:6 7:5 8:10 9:9 
0.3309989425557842 1:17 2:8 3:10 4:12 5:21 6:17 7:15 8:9 9:10 
0.3311411000802288 1:16 2:20 3:13 4:1 5:9 6:10 7:16 8:5 9:10 
0.3311357507909164 1:4 2:17 3:14 4:14 5:15 6:9 7:9 8:17 9:16 
0.3308163483965428 1:9 2:11 3:8 4:7 5:17 6:7 7:17 8:7 9:17 
0.3311450223645101 1:21 2:13 3:17 4:11 5:17 6:9 7:21 8:1 9:16 
0.3311453703979819 1:21 2:5 3:10 4:21 5:1 6:18 7:8 8:2 9:12 
0.3311449327907299 1:14 2:20 3:11 4:9 5:9 6:17 7:13 8:1 9:21 
0.3311441965380869 1:16 2:17 3:14 4:18 5:6 6:4 7:4 8:13 9:8 
0.3311825257313893 1:21 2:4 3:5 4:3 5:12 6:1 7:8 8:17 9:16 
0.3311771772089208 1:13 2:6 3:7 4:8 5:20 6:13 7:13 8:9 9:17 
0.3311548649261377 1:10 2:14 3:20 4:21 5:5 6:4 7:8 8:4 9:9 
0.3312163366952774 1:3 2:13 3:9 4:20 5:10 6:8 7:7 8:17 9:16 
0.3311621781826411 1:6 2:16 3:9 4:21 5:9 6:7 7:15 8:4 9:15 
0.331273853328672 1:17 2:9 3:8 4:5 5:15 6:17 7:21 8:17 9:14 
0.3319865304319877 1:19 2:10 3:1 4:18 5:5 6:10 7:6 8:12 9:20 
0.3311816865727908 1:5 2:5 3:10 4:17 5:7 6:16 7:15 8:15 9:13 
0.3304503702348494 1:14 2:9 3:16 4:16 5:17 6:9 7:20 8:10 9:14 
0.331219074091949 1:5 2:9 3:5 4:10 5:5 6:6 7:16 8:8 9:21 
0.33071819673049 1:3 2:9 3:9 4:21 5:14 6:20 7:8 8:11 9:8 
0.3312200995453183 1:9 2:1 3:16 4:15 5:15 6:15 7:4 8:8 9:17 
0.3311592017541459 1:18 2:10 3:14 4:14 5:4 6:5 7:10 8:17 9:15 
0.3312331513471963 1:5 2:17 3:11 4:8 5:21 6:16 7:5 8:7 9:18 
0.3314175949312397 1:2 2:10 3:18 4:12 5:5 6:15 7:8 8:5 9:16 
0.3311719439438082 1:21 2:16 3:17 4:7 5:10 6:16 7:10 8:13 9:9 
0.3311918811370064 1:17 2:8 3:8 4:14 5:7 6:17 7:15 8:8 9:16 
0.3311521459938639 1:9 2:21 3:8 4:21 5:9 6:5 7:14 8:4 9:4 
0.3311476166925606 1:1 2:18 3:1 4:7 5:1 6:2 7:12 8:13 9:16 
0.3306228328708196 1:16 2:9 3:17 4:15 5:3 6:9 7:9 8:16 9:1 
0.330663992115077 1:14 2:17 3:18 4:17 5:19 6:18 7:13 8:18 9:13 
0.3311591267714771 1:15 2:21 3:15 4:13 5:14 6:9 7:9 8:16 9:5 
0.3307182305433037 1:6 2:8 3:14 4:19 5:20 6:12 7:6 8:14 9:21 
0.330861282208077 1:10 2:15 3:9 4:17 5:17 6:14 7:4 8:19 9:9 
0.3311611279851744 1:21 2:3 3:5 4:5 5:10 6:2 7:2 8:10 9:21 
0.3311591560330397 1:6 2:7 3:17 4:1 5:1 6:10 7:7 8:4 9:19 
0.3311764873756138 1:10 2:17 3:12 4:9 5:13 6:9 7:2 8:7 9:10 
0.3307262239521941 1:8 2:11 3:5 4:8 5:17 6:1 7:14 8:5 9:17 
0.3311031306648998 1:14 2:16 3:9 4:4 5:12 6:9 7:12 8:7 9:12 
0.3311591269184437 1:12 2:21 3:15 4:4 5:9 6:21 7:17 8:10 9:6 
0.3311841187690772 1:5 2:17 3:4 4:18 5:16 6:17 7:14 8:9 9:14 
0.3311548118892424 1:20 2:15 3:2 4:10 5:19 6:1 7:16 8:12 9:15 
0.3311890035707919 1:14 2:18 3:17 4:21 5:5 6:5 7:14 8:10 9:2 
0.3311899894247979 1:11 2:1 3:7 4:17 5:10 6:9 7:10 8:17 9:17 
0.3311581215418436 1:14 2:17 3:17 4:12 5:9 6:10 7:15 8:12 9:21 
0.331192435944331 1:6 2:12 3:6 4:20 5:17 6:9 7:8 8:13 9:3 
0.330840494040181 1:4 2:21 3:7 4:21 5:8 6:2 7:17 8:10 9:10 
0.3311901888737294 1:13 2:8 3:6 4:20 5:8 6:18 7:7 8:20 9:10 
0.331355919668972 1:14 2:12 3:8 4:7 5:16 6:16 7:7 8:7 9:7 
-1 1:8 2:4 3:12 4:8 5:12 6:4 7:10 8:8 9:4 
-1 1:8 2:1 3:9 4:11 5:4 6:9 7:1 8:16 9:16 
-1 1:1 2:12 3:16 4:9 5:5 6:8 7:6 8:8 9:17 
-1 1:9 2:11 3:4 4:3 5:20 6:8 7:9 8:9 9:12 
-1 1:3 2:8 3:4 4:9 5:9 6:8 7:1 8:9 9:11 
-1 1:1 2:16 3:16 4:18 5:5 6:12 7:18 8:18 9:12 
-1 1:3 2:12 3:8 4:9 5:3 6:12 7:18 8:6 9:9 
-1 1:8 2:4 3:9 4:9 5:8 6:1 7:9 8:11 9:4 
-1 1:5 2:8 3:20 4:12 5:9 6:14 7:10 8:4 9:4 
-1 1:9 2:3 3:12 4:18 5:6 6:9 7:11 8:4 9:3 
-1 1:9 2:9 3:17 4:8 5:4 6:12 7:8 8:12 9:4 
-1 1:11 2:4 3:9 4:1 5:16 6:16 7:18 8:5 9:12 
-1 1:4 2:9 3:9 4:8 5:1 6:9 7:11 8:4 9:9 
-1 1:9 2:10 3:18 4:5 5:6 6:20 7:15 8:9 9:13 
-1 1:6 2:17 3:4 4:9 5:10 6:8 7:4 8:17 9:20 
-1 1:9 2:8 3:1 4:9 5:11 6:4 7:9 8:1 9:16 
-1 1:8 2:9 3:3 4:12 5:18 6:6 7:9 8:11 9:4 
-1 1:20 2:3 3:10 4:5 5:8 6:20 7:12 8:9 9:14 
-1 1:9 2:9 3:8 4:1 5:9 6:11 7:4 8:9 9:1 
-1 1:20 2:10 3:3 4:12 5:8 6:9 7:3 8:12 9:18 
-1 1:4 2:17 3:20 4:5 5:16 6:9 7:12 8:20 9:14 
-1 1:4 2:12 3:8 4:12 5:4 6:10 7:8 8:4 9:4 
-1 1:10 2:9 3:9 4:10 5:18 6:5 7:6 8:20 9:15 
-1 1:6 2:9 3:11 4:4 5:3 6:20 7:8 8:9 9:9 
-1 1:14 2:20 3:8 4:9 5:1 6:12 7:16 8:9 9:5 
-1 1:6 2:19 3:16 4:1 5:8 6:15 7:4 8:15 9:11 
-1 1:3 2:20 3:8 4:9 5:9 6:12 7:9 8:9 9:17 
-1 1:12 2:8 3:9 4:3 5:12 6:18 7:6 8:9 9:11 
-1 1:17 2:20 3:5 4:16 5:9 6:12 7:20 8:14 9:3 
-1 1:8 2:12 3:4 4:10 5:8 6:4 7:4 8:16 9:9 
-1 1:1 2:8 3:15 4:4 5:15 6:11 7:15 8:15 9:1 
-1 1:10 2:5 3:8 4:20 5:12 6:9 7:14 8:10 9:4 
-1 1:9 2:11 3:4 4:9 5:1 6:16 7:16 8:18 9:5 
-1 1:20 2:5 3:16 4:9 5:12 6:20 7:14 8:3 9:20 
-1 1:5 2:6 3:20 4:15 5:9 6:13 7:10 8:3 9:12 
-1 1:10 2:8 3:4 4:17 5:20 6:5 7:16 8:9 9:12 
-1 1:17 2:4 3:9 4:10 5:8 6:4 7:17 8:20 9:5 
-1 1:10 2:3 3:12 4:8 5:9 6:3 7:12 8:18 9:6 
-1 1:5 2:16 3:9 4:12 5:20 6:14 7:3 8:20 9:4 
-1 1:18 2:5 3:6 4:20 5:15 6:9 7:13 8:10 9:3 
-1 1:12 2:16 3:9 4:5 5:8 6:6 7:8 8:17 9:4 
-1 1:20 2:8 3:9 4:1 5:12 6:16 7:9 8:5 9:8 
-1 1:10 2:18 3:5 4:6 5:20 6:15 7:9 8:13 9:10 
-1 1:16 2:9 3:12 4:20 5:14 6:3 7:20 8:4 9:20 
-1 1:9 2:1 3:16 4:16 5:18 6:5 7:12 8:18 9:18 
-1 1:14 2:20 3:3 4:10 5:5 6:8 7:20 8:12 9:9 
-1 1:14 2:1 3:14 4:20 5:3 6:10 7:5 8:8 9:20 
